function [y1] = myNeuralNetworkFunction(x1)
%MYNEURALNETWORKFUNCTION neural network simulation function.
%
% Generated by Neural Network Toolbox function genFunction, 20-Feb-2017 16:22:13.
%
% [y1] = myNeuralNetworkFunction(x1) takes these arguments:
%   x = 5xQ matrix, input #1
% and returns:
%   y = 625xQ matrix, output #1
% where Q is the number of samples.

%#ok<*RPMT0>

% ===== NEURAL NETWORK CONSTANTS =====

% Layer 1
IW1_1 = [-53.586850000000013 0.08596955286846561 2871.5575720500001 -53.593249999999998 -0.0010499999999957765;-52.878450000000022 8.8277626567372227 2870.1633982499998 -59.878999999999998 -0.0040750000000002728;-53.081800000000023 9.4260453369765216 2902.0853054000004 -60.564999999999998 0.001799999999995805;-54.048683333333344 0.089307038984170431 2921.2678627833338 -54.036499999999997 -0.0024250000000023419;-54.370074999999993 0.087875032525765534 2956.1124321749999 -54.376499999999993 -0.0004749999999980048;-54.016850000000019 9.1757893638640162 2997.80543885 -60.564999999999998 0.001799999999995805;-55.355099999999993 0.12513903846269764 3064.2019728 -55.367500000000007 -2.5000000004382628e-05;-56.52055 0.14230156081549575 3194.5918095499997 -56.515000000000001 0.0030499999999982208;-56.803540000000005 0.067303128523333866 3226.6487905800013 -56.798700000000004 0.00077500000000512164;-56.561999999999998 7.8471957243872854 3257.7594006999993 -63.359499999999997 -0.0036000000000022681;-56.858700000000013 9.8992146849609917 3326.0064945000004 -48.156999999999996 0.0051999999999985391;-57.907624999999996 9.649728647807752 3441.846057625 -60.588250000000002 -0.0010999999999992127;-58.952050000000021 10.114582487285636 3572.5337391499997 -65.757500000000007 -0.013175000000011039;-62.314050000000009 5.9455390749792629 3916.6227905499995 -62.100499999999997 0.0041999999999866588;-64.111783333333321 0.15741818124899065 4110.3447736499993 -64.116833333333332 -0.0030166666666744391;-64.413949999999986 0.10337186203894395 4149.1718249499991 -64.410500000000013 -0.00073749999999606075;-64.470162499999986 0.048728011534509882 4156.4061449875007 -64.465312499999982 8.4374999993030997e-05;-64.5793125 0.028191495985599387 4170.4883705125003 -64.586124999999996 -0.001449999999998397;-64.681325000000001 0.045347128601936196 4183.6757830749993 -64.677500000000009 -0.00064999999999670877;-64.745062500000017 0.024534662614723819 4191.9237108874995 -64.749625000000009 -0.0018937499999989171;-65.168149999999997 0.1055071438208097 4246.8984297000006 -65.16749999999999 0.0036999999999949296;-65.464924999999994 0.1302068641801285 4285.6726180749993 -65.476500000000001 0.0032750000000021373;-65.681650000000019 0.36096380850804344 4314.2029268499991 -65.787000000000006 -0.0015500000000017167;-65.85796666666667 0.081013157799134372 4337.2796482666654 -65.854833333333332 -0.0015750000000049149;-65.947000000000003 0.096799980449258735 4349.0179342500014 -65.966000000000008 -0.0023500000000069576;-53.549250000000008 0.089428152750750139 2867.5299922999998 -53.558 -0.0010499999999957765;-53.706250000000004 0.09830531603938987 2884.3706522499997 -53.688499999999991 -0.0022999999999946397;-53.936475000000002 0.073058445526187413 2909.1488005000001 -53.933374999999998 0.00098124999999793516;-54.144649999999999 0.074368726951342973 2931.6485623500002 -54.161625000000001 -0.0010249999999958348;-54.595687500000011 0.064847843835860591 2980.6932398375002 -54.595875000000007 0.0027124999999976751;-55.043424999999999 0.11321089893300965 3029.7909235749994 -55.042000000000002 0.0018499999999974648;-55.926687499999993 2.0201410363600392 3142.3161532375002 -57.018999999999998 0.0032062500000034078;-56.671462500000004 0.06768929596769252 3211.6615658374994 -56.680374999999998 0.0018312499999906251;-56.881599999999992 0.04283186221789366 3235.5181613999994 -56.865000000000002 0.0042249999999945942;-57.432575 0.08900183285033722 3298.5082521250006 -57.424999999999997 -0.00012500000000947864;-58.05351666666666 0.108460475096993 3370.2222040166662 -58.052999999999997 -0.0019250000000023231;-58.230399999999996 9.5572932162329636 3477.5542451000001 -63.359499999999997 -0.010875000000002188;-60.444162500000004 5.6413774100719829 3707.5405544125006 -63.715999999999994 -0.34248749999999895;-63.822299999999998 0.14349321929975245 4073.3056887000002 -63.823250000000002 0.00049999999998107114;-64.327999999999989 0.090245571347203318 4138.1022111000002 -64.333333333333329 -0.0020250000000080108;-64.461250000000007 0.033782188004989375 4155.2539093125006 -64.459187499999999 0.00034062499999620854;-64.535899999999998 0.028591567881894469 4164.8832368625008 -64.538562499999998 0.00026249999999716778;-64.62299999999999 0.03956629862217069 4176.1337146333326 -64.632666666666665 -0.0011666666666580263;-64.750683333333328 0.024138590905470925 4192.6515563499997 -64.762 -0.0011750000000011103;-64.856850000000009 0.15394574403101585 4206.4335062499995 -64.861999999999995 0.00029999999999574811;-65.373933333333341 0.2758363842008939 4273.8654904999994 -65.499499999999998 0.0012916666666716497;-65.621724999999998 0.28126784906262725 4306.3076152749991 -65.715249999999997 0.0013249999999978002;-65.744175000000013 1.5530245479402818 4330.7640517500004 -66.230000000000004 0.00052499999999611191;-65.927362500000001 0.076171218498763016 4346.4240706874998 -65.930875 -0.0023250000000061277;-65.9707875 0.073883299872979952 4352.1515762625004 -65.971499999999992 -0.0020625000000151772;-53.297774999999987 0.11209226973654457 2840.6648346250004 -53.299499999999995 -0.0051749999999941565;-53.512599999999999 0.094650123257805474 2863.6069163499997 -53.52525 -0.0010499999999957765;-53.809950000000015 0.097081883506981839 2895.5196726499998 -53.837500000000006 0.00077500000000441105;-54.0001125 0.084802518979305658 2916.0191855125004 -53.992625000000004 -0.0023312500000036707;-53.760900000000014 8.5948621978482027 2960.4124422 -59.881500000000003 -0.0031500000000086459;-54.763199999999998 0.094461624129403884 2999.0166335500007 -54.766500000000001 0.0013374999999946624;-55.440133333333335 0.12701989186660062 3073.6240160333336 -55.429166666666667 0.00047499999999445208;-56.345649999999999 0.11811023465208872 3174.8457961499994 -56.342499999999994 0.006175000000004852;-56.77619 0.067678579291551771 3223.5422305300008 -56.771500000000003 0.00097500000000181339;-57.1053 0.06667657124246347 3261.0196090999998 -57.096499999999999 0.0027499999999882618;-57.492374999999996 0.093675586660316293 3305.3815605250002 -57.492999999999995 -0.00010000000001042508;-57.845175000000005 8.4368449751744947 3414.1549886749995 -63.3825 -0.0049125000000049823;-59.689250000000015 0.40406640110392966 3562.9626748000001 -59.885499999999993 -0.0024249999999916838;-63.758633333333336 0.14841574931655671 4065.1846565666665 -63.766333333333328 0.00049999999998107114;-63.6158 7.9558240540466558 4107.1003891999999 -67.480000000000004 0.0068999999999981299;-64.165975000000003 5.5074076410461412 4146.1442525749999 -67.916500000000013 0.00029999999999397176;-64.517649999999989 0.032796593428919885 4162.5282203499992 -64.512666666666661 0.00073750000000316618;-64.587942857142849 0.059148064627418569 4171.6078158428572 -64.588857142857137 -0.00032142857143213627;-64.738400000000013 0.02747193407424435 4191.0612105 -64.73599999999999 -0.0015125000000004718;-64.794356666666673 0.030567319750335071 4198.3106058766662 -64.802899999999994 -0.0027050000000031107;-65.129499999999979 0.10756939570302354 4241.8628657999998 -65.142749999999992 0.0036999999999949296;-65.503033333333349 0.26037735188450645 4290.7440571999996 -65.589166666666671 0.0017499999999894082;-65.750433333333334 0.18246835598335115 4323.1544599666668 -65.74666666666667 0.0017749999999973436;-65.879549999999995 0.082574417786309695 4340.1232817833325 -65.877333333333326 -0.001658333333343383;-65.995766666666668 0.080834408108764022 4355.4491802333323 -66.003166666666658 -0.0020250000000103796;-53.054449999999996 0.31402605909298897 2814.8683465499998 -53.118499999999997 -0.0026000000000152568;-53.472266666666663 0.10172836491023815 2859.2933235333326 -53.470500000000001 -0.0010499999999957765;-53.744500000000009 0.10020619623095853 2888.4808792999993 -53.739000000000004 -0.0022999999999946397;-54.176149999999993 0.06552321806247853 2935.0593074500007 -54.195499999999996 0.000375000000008896;-54.520470000000003 0.058936373856877992 2972.4851209499998 -54.520099999999999 0.0011100000000041632;-54.986074999999992 0.1096022135250595 3023.4799247249994 -54.994500000000002 0.0030500000000017735;-55.940325000000001 0.10956049455781022 3129.331739925 -55.952249999999992 0.0034125000000102546;-56.646612500000003 0.068398862207575808 3208.8454411874991 -56.648000000000003 0.00099999999999145217;-56.922099999999993 0.081016494653858226 3240.1343128000003 -56.920000000000002 0.00068750000000061817;-57.262333333333338 0.087684485312116534 3278.9822360666667 -57.267499999999998 0.00013333333332591715;-57.725974999999991 0.095400197735716785 3332.2971369750003 -57.723124999999996 -0.0011062500000020847;-58.75200000000001 9.918804807558633 3545.2630354500006 -65.421000000000006 -0.0023250000000061277;-60.223000000000027 10.093945444254141 3723.6030768999999 -68.204499999999996 -1.15625;-63.658999999999992 0.15083846476012083 4052.4904538999999 -63.661749999999998 0.00033749999999344027;-64.024516666666671 0.14921111461613507 4099.1608704499995 -64.017499999999998 -0.00078333333333565247;-64.48981666666667 0.024058895540044718 4158.9371221833326 -64.49766666666666 0.0026249999999983231;-64.570412499999989 0.0249994086465283 4169.3387778374999 -64.571249999999992 -0.0015125000000040245;-64.689875000000029 0.038896883323641954 4184.7813710749997 -64.692499999999995 -0.0019374999999932641;-64.785049999999998 0.020930953759479082 4197.103127899999 -64.77591666666666 -0.0027000000000043651;-65.00173333333332 0.27495189663871222 4225.3369525999997 -64.876833333333337 0.0016083333333322498;-65.3018 0.27482621265887797 4264.4432183666659 -65.439833333333326 0.0011750000000011101;-65.634394444444439 0.75157137247144989 4311.0696724777772 -65.926777777777772 0.0010374999999977303;-66.021924999999996 0.048357002908434192 4358.8968537500004 -66.020500000000013 -0.0020750000000120394;-66.07759999999999 0.035934708000456284 4366.2504557999991 -66.086749999999995 -0.0014000000000038426;-66.088383333333311 0.064188564745392779 4367.6805283166668 -66.097166666666666 -0.0010250000000056048;-52.048524999999998 0.61971339232921974 2709.4153794249996 -51.733499999999992 -0.0037125000000060027;-52.314475000000002 4.3082077441266131 2767.1922193749997 -50.597000000000001 0.00032499999999302531;-52.561650000000014 4.9963526892157457 2806.5033719499997 -56.8215 -0.00040000000000972591;-53.65955000000001 0.091263917467852063 2879.3552188500003 -53.644999999999996 -0.0022999999999946397;-54.252974999999992 0.070628960236414323 2943.3900915250001 -54.240499999999997 0.00092499999999873239;-53.955000000000005 9.1205035064148898 2990.1664300000002 -48.154000000000003 0.0051999999999985391;-55.140374999999999 0.11619472449779941 3040.4738746750004 -55.129000000000005 0.00063750000000339924;-56.395925000000005 0.12492491047390847 3180.5153044749995 -56.378500000000003 0.005762500000001225;-56.830590000000001 0.065352573286602045 3229.7225342500005 -56.834500000000006 0.003155000000000996;-57.163925000000006 0.68073379055944505 3269.1801924750002 -57.013500000000001 0.0013999999999976254;-57.671133333333323 0.096512306927957314 3325.9686372999995 -57.670499999999997 -0.0001500000000085322;-58.301700000000004 0.10958914531532066 3399.0997310000002 -58.299750000000003 -0.0023750000000006821;-59.955300000000001 5.351225861524874 3621.8418354 -56.555499999999995 0.0021749999999869374;-61.877850000000002 6.5051664222376866 3872.3878401833326 -62.7515 0.0021499999999920281;-63.648600000000009 5.4138103655082173 4078.9881575000009 -67.897500000000008 -0.0022000000000019782;-64.274912499999999 0.075299010585191728 4131.2722159125005 -64.271250000000009 -0.0013687500000099107;-64.498378571428574 0.045806744379912681 4160.0453526071424 -64.50028571428571 -0.00017500000000377923;-64.63239999999999 0.041067760577200317 4177.3488232 -64.63366666666667 -0.001083333333329032;-64.757225000000005 0.020638085075012649 4193.4985986499996 -64.763874999999999 -0.00083749999999938041;-64.891249999999999 0.26997683142896317 4210.9705260499995 -64.796166666666664 0.00044166666667422305;-65.198966666666664 0.26799145042574024 4251.0242431333336 -65.183999999999997 0.0015583333333282212;-65.649100000000004 0.12786707736428615 4309.8198633000002 -65.668000000000006 0.004199999999997317;-66.110979999999998 0.048116374225520245 4370.6654336800002 -66.112300000000005 -1.4999999994813541e-05;-66.146124999999998 0.026225053938095218 4375.3105184000005 -66.148749999999993 0.00012499999999704414;-66.160799999999995 0.047124646286209965 4377.2551811200001 -66.161000000000016 -0.00064000000000561383;-51.052900000000008 7.1056611966871346 2654.3644983999998 -48.154000000000003 0.004449999999994958;-52.158400000000007 0.65813271737865331 2720.9101722999994 -51.762 -0.0039500000000032287;-51.996250000000018 8.962783319312555 2779.9249246499994 -59.862499999999997 -0.0046499999999980446;-52.986000000000004 8.6175196089435318 2878.0647580000004 -48.154000000000003 0.0051999999999985391;-54.403024999999985 0.082579503091998796 2959.6957760249998 -54.422249999999998 0.00017500000000048033;-54.840616666666662 0.10084997913197757 3007.5030644833332 -54.828833333333336 0.0036499999999932697;-55.663150000000009 0.13989555314402907 3098.4048601500003 -55.661000000000001 0.0021999999999984254;-56.288149999999995 0.10662273388819794 3168.3668657499993 -56.280000000000001 0.0080166666666710747;-56.946774999999988 0.083258708046488855 3242.9445397000004 -56.952124999999995 0.002712500000002116;-57.522049999999986 0.092505508097515982 3308.7944239500007 -57.524250000000002 0.0012000000000025324;-58.163383333333321 0.11256121374866079 3382.991438016667 -58.157833333333329 -0.0037499999999965894;-58.821887499999995 0.060321026289568501 3460.0183133874993 -58.807499999999997 0.00083125000000183746;-59.921465384615388 4.2449389625868807 3622.6542263038464 -60.855461538461547 0.0016211538461510799;-62.785350000000008 7.2803460372438717 3994.0658901500001 -67.596499999999992 0.0055499999999923944;-64.18965 0.15762856907767095 4120.3347715499995 -64.170500000000004 -0.0032000000000138584;-64.448799999999991 0.028822747217522843 4153.6486731777768 -64.452999999999989 0.0010666666666633909;-64.557718749999992 0.047239096296310693 4167.7034554687507 -64.551562500000003 0.00076562500000232347;-64.670749999999998 0.075909495848895198 4182.3141449000004 -64.67625000000001 -0.0011999999999972033;-64.832450000000023 0.15505125638079609 4203.2694118499994 -64.856499999999997 -0.00057500000000487717;-65.272549999999995 0.1137196344663408 4260.5180690499992 -65.257999999999996 0.0033249999999966917;-65.582400000000007 0.12784711264055185 4301.0667174 -65.572999999999993 0.0036999999999949296;-66.123999999999995 0.023811355478414974 4372.3839476999992 -66.115499999999997 0.00065000000000736691;-66.000100000000003 4.8867030743479916 4378.6990735999998 -68.209499999999991 0.0012749999999890349;-66.179768749999994 0.03685969307736793 4379.7643778312504 -66.182187499999998 0.0010406249999981299;-66.199493750000002 0.034639575686136417 4382.3755102812493 -66.197687500000001 0.0012406250000003283;-51.380674999999997 0.041934049522721256 2639.9755322749993 -51.378375000000005 0.0028437499999940385;-51.450490000000002 0.01898770864568947 2647.1534358000004 -51.446149999999996 0.011779999999986046;-51.498442857142848 0.059109513418027983 2652.0933092142859 -51.474499999999999 0.008646428571419713;-51.938649999999996 0.55934428480799581 2697.9205865499998 -51.700000000000003 -0.0033000000000136254;-53.417349999999985 0.11228641713797967 2853.4252588499999 -53.420000000000002 -0.0024750000000004491;-54.335783333333318 0.089841219774315514 2952.3851302833327 -54.331499999999998 -0.00058333333333138171;-55.388475 0.12732446237054595 3067.8986879250001 -55.392000000000003 0.00082499999999541274;-55.882024999999999 0.12307078455876336 3122.8155298249999 -55.887500000000003 0.0034125000000102546;-56.485125000000011 0.13871854118077137 3190.5877491749998 -56.482250000000008 0.0031500000000121986;-57.389024999999997 0.087334501489990751 3293.5074770750002 -57.382000000000005 0.00082499999999896545;-57.948666666666654 0.10107383957594913 3358.0578459333342 -57.954833333333333 -0.0016749999999999452;-58.442512500000007 0.082270304058447596 3415.5339526875005 -58.463625000000008 -0.0019187500000059643;-58.676449999999974 3.9759450313234033 3457.9435165499999 -57.097999999999999 -0.00054999999999694182;-60.186209999999996 2.5191019762808082 3642.2017773100001 -60.720100000000002 0.0010599999999985951;-64.301839999999999 0.07193624977562077 4134.7336823799997 -64.299999999999997 -0.0024000000000000913;-64.395699999999991 0.031888255397413773 4146.8071551500007 -64.409000000000006 -0.00023749999999722604;-64.508512499999995 0.030890985265050228 4161.3491757374995 -64.501000000000005 0.0014687500000043485;-64.643260000000012 0.11271524013188058 4178.7706811200005 -64.629500000000007 -0.0013049999999964258;-64.774978571428576 0.035711198635169687 4195.801435549999 -64.775285714285701 -0.0016821428571459154;-65.09014999999998 0.11351705633750359 4236.7399727500006 -65.11975000000001 0.0036999999999949296;-65.374300000000005 5.266908801784572 4300.1524123999998 -68.120000000000005 0.0012749999999890349;-66.09741666666666 0.02758184554218425 4368.8692227833326 -66.106999999999999 0.00024166666666284678;-66.22407142857142 0.044822749996856537 4385.6308953999996 -66.220499999999987 -0.0010178571428584502;-66.247260000000011 0.057608195436305493 4388.7041244799993 -66.249400000000009 -4.5000000001493769e-05;-66.359616666666682 0.036674736597463897 4403.6000100166666 -66.359333333333325 0.00084166666664960599;-51.262625 0.067918675308321491 2627.8611396750002 -51.274000000000001 -0.00022499999999681108;-51.303166666666669 0.047768407154974504 2632.0173122999995 -51.313833333333328 0.00074999999999884415;-51.414099999999998 0.033224419357413819 2643.4108475249996 -51.421999999999997 0.0095124999999907089;-51.862949999999991 0.50068000864087958 2690.0037291499998 -51.673000000000002 -0.0029000000000145576;-53.361999999999988 0.11494025908225139 2847.5155946999998 -53.376000000000005 -0.0039250000000095042;-54.55693333333334 0.057620869682012243 2976.4622026333332 -54.556166666666662 0.0025333333333321657;-55.281025 0.12540267243380801 3056.0067789750001 -55.265749999999997 -0.0015499999999946112;-55.628275000000002 0.13827329865435201 3094.5232760750005 -55.613500000000002 0.0022374999999961176;-56.405250000000009 7.2098851284739265 3230.9355489499999 -59.917000000000002 -0.00085000000000334808;-57.112574999999993 8.1448568173159135 3324.9381784749994 -63.372999999999998 -0.0042250000000016996;-58.39385 0.093277396007179381 3409.85012895 -58.402166666666666 -0.0036500000000003747;-58.649087499999993 0.054467180925765177 3439.7184042874997 -58.659875 -0.00045000000001493845;-58.730666666666657 0.054949713457506148 3449.2942608999997 -58.733166666666669 -0.0016041666666749184;-63.587516666666659 0.1464528093459849 4043.3930253499993 -63.584666666666664 0.00034166666665906098;-64.353437499999984 0.077670647673843629 4141.3732556625 -64.361249999999998 -0.0016437500000012761;-64.428089999999983 0.019258804136003848 4150.9791847433344 -64.419299999999993 0.0043099999999943375;-64.659862500000003 0.046014533214793374 4180.8998670375004 -64.653999999999996 -0.00092499999999873239;-64.731337499999995 0.030085117766544083 4190.1469722125003 -64.725875000000002 -0.0015812500000027541;-64.817366666666658 3.0899213341108749 4218.2653703333326 -66.318583333333322 0.0018958333333335034;-65.717449999999985 0.14040298204960305 4318.8019618500002 -65.713999999999999 0.004199999999997317;-66.064683333333321 0.070210352080442101 4364.5488275833322 -66.05383333333333 -0.0014000000000038426;-66.266224999999991 0.060205763099056633 4391.2179022499995 -66.256500000000017 0.00031249999999971578;-66.340370000000007 0.057710765376348332 4401.0496584700004 -66.334500000000006 -0.00030000000000853801;-66.392520000000005 0.050920826643754503 4407.971868820001 -66.391499999999994 -0.0014450000000167053;-66.409700000000015 0.025008952773359395 4410.24887666 -66.398500000000013 0.00046499999997848821;-50.978050000000003 0.041087178366085171 2598.7632401999999 -50.97325 0.0033312500000040046;-51.060110000000016 0.022188185326784068 2607.1353560899997 -51.052 0.0014800000000015246;-51.147733333333342 0.082323243604249613 2616.0971402333339 -51.130499999999991 -0.0049999999999990052;-51.221024999999997 0.083714400641325876 2623.600188375 -51.241500000000002 -0.0038999999999997925;-52.27150000000001 0.68010722817491653 2732.7505134999992 -51.766500000000001 -0.0050750000000032713;-53.626383333333337 0.08666748871348498 2875.7962996166671 -53.624833333333328 -0.0014583333333284541;-54.666850000000004 0.080940446833237992 2988.4707636500007 -54.653999999999996 0.0012375000000020009;-55.240224999999995 0.12318487807579057 3051.4969617750003 -55.242750000000001 -0.0026124999999979082;-55.819866666666663 0.13538460588419712 3115.8752155333341 -55.832499999999996 0.002825000000003778;-56.747889999999998 0.064710506283399957 3220.3292813100002 -56.744100000000003 0.00075999999999538665;-57.635975000000009 7.8853166308093368 3381.9777642749996 -61.962249999999997 -0.0024125000000037033;-58.614816666666655 0.058821227117445515 3435.7000908166665 -58.622166666666665 7.4999999991831601e-05;-58.777374999999992 0.052353539723688135 3454.7826297749998 -58.783499999999997 0.001462499999998812;-60.022213636363638 0.031974626701316032 3602.66731695 -60.017545454545456 -0.00040227272727477736;-64.216250000000002 0.16236245190768042 4123.7518075499993 -64.210999999999999 -0.0032000000000138584;-64.382899999999992 0.067953011019750806 4145.1656563750003 -64.389624999999995 -0.001581249999997425;-64.547087500000004 0.017560667109857417 4166.3269136374993 -64.548916666666656 -9.5833333333554039e-05;-64.707820000000012 0.10201115593696899 4187.1272088199994 -64.696799999999996 -0.0014150000000029198;-64.328150000000008 8.0150968492359205 4199.1405710500003 -68.204499999999996 -3.8830499999999901;-65.719927499999997 0.14354737737975679 4319.4248075124997 -65.690899999999999 0.00092125000000002914;-66.134183333333311 0.022286682298503405 4373.7306890833333 -66.138833333333324 0.00030000000000048499;-66.292574999999985 0.045213280079767965 4394.709101808332 -66.300166666666655 -5.9212617448123339e-15;-66.448874999999987 0.071398449963073804 4415.4608281250003 -66.440375000000003 -0.002187500000010445;-66.466249999999974 0.037784684084119238 4417.7637576500001 -66.47075000000001 -0.0013000000000040757;-66.482170000000011 0.06189289786794798 4419.8853716900012 -66.480900000000005 -0.0021800000000013141;-50.776049999999984 0.055584938304823563 2578.2102433500004 -50.773000000000003 -0.001708333333345043;-50.801424999999988 0.055904977990728522 2580.7878196250008 -50.807500000000005 -0.0025750000000037687;-50.827683333333326 0.056623652927758797 2583.4564927166666 -50.828999999999994 -0.0021333333333307296;-51.035257142857141 0.026588665671658854 2604.5982143428569 -51.047428571428568 2.8571428576437273e-05;-51.115400000000015 9.0089407660565612 2689.8870801999992 -51.100499999999997 -0.0046499999999980446;-53.88611666666668 0.078696810136363635 2903.7195988500002 -53.890000000000001 0.0017750000000056332;-54.636016666666677 0.072175999733097934 2985.0993749499999 -54.61333333333333 0.0025333333333321661;-55.323199999999986 0.12715608909144793 3060.6719165999998 -55.332250000000002 -0.00082500000000251816;-55.764249999999997 0.13753494039488939 3109.6696883499999 -55.766500000000001 0.0024750000000004491;-56.974024999999997 0.082981476671215637 3246.0488336500002 -56.964750000000009 0.0036250000000048743;-58.489066666666666 0.071277191941377313 3420.9758459333334 -58.490833333333335 0.0012416666666605161;-58.687137499999992 0.055001081023307627 3444.1830997874995 -58.676249999999996 -0.00082500000001139995;-59.311699999999988 0.50888612606036676 3518.1245542000001 -58.991749999999996 -0.0048249999999931958;-62.275700000000015 9.3539142727017026 3961.3837371 -68.204499999999996 -2.7225749999999849;-64.252166666666653 0.0845339936988906 4128.3506436666667 -64.245166666666663 -0.0011416666666761444;-64.480261111111105 0.030043133240394159 4157.7050669277778 -64.489222222222224 0.0021138888888903766;-64.612374999999986 0.071274037283719768 4174.7670140499995 -64.620750000000001 -0.0014249999999993435;-64.822599999999994 0.47090779072810207 4202.1801372 -64.593999999999994 -0.0018999999999849138;-65.42413333333333 0.26924406216727154 4280.424023399999 -65.519666666666666 0.0016666666666675194;-66.044666666666643 0.072603984116403106 4361.9048258666662 -66.041499999999985 -0.0011833333333441942;-66.320137499999987 0.053116399310811364 4398.3656120374999 -66.311875000000015 -0.0005687500000082224;-66.553149999999988 0.16577602912213166 4429.3479225000001 -66.518249999999995 -0.0029500000000020066;-66.6719875 0.19890041743491471 4445.1934539875001 -66.619 -0.0035250000000068837;-66.761925000000019 0.196054603665411 4457.1944637750003 -66.780000000000001 -0.0033375000000006594;-66.629700000000014 4.3850783717415807 4457.7843887999998 -68.30449999999999 0.0012749999999890349;-50.522800000000004 0.046790560516714326 2552.5554789999997 -50.518625 -0.0010750000000117055;-50.347383333333326 0.065346047267827403 2534.8631413166672 -50.348999999999997 -0.0011916666666695146;-50.436320000000009 0.053898526787420166 2543.8252749799999 -50.439800000000005 -0.00088500000000806271;-50.640699999999995 0.050753216371959439 2564.4829626499991 -50.636750000000006 -0.0013000000000147338;-50.234550000000013 8.9642108319401821 2599.8492357499995 -42.354999999999997 -0.0046499999999980446;-51.61462499999999 0.093467082527312589 2664.0780982749993 -51.603124999999999 0.00015624999999364064;-53.333149999999989 0.11577838836515326 2844.4377051500005 -53.344999999999999 -0.0048249999999967486;-54.700150000000008 0.085709909639621162 2992.1134978500008 -54.697499999999998 0.0012750000000020616;-55.190233333333332 0.12311498509126068 3045.9765012000003 -55.186833333333333 -0.0033916666666667559;-55.582949999999997 0.1336283048784207 3089.4814057000003 -55.588749999999997 0.0018625000000014325;-58.235149999999997 4.1133345197117919 3407.4062403500006 -56.555499999999995 0.0021749999999869374;-58.32384583333333 2.8780433474176004 3424.5200755791666 -60.164874999999995 -0.002702083333338952;-59.113174999999998 2.2032119264722194 3501.8179184749997 -59.403999999999996 -0.0020249999999943924;-61.668446428571428 2.3479467259212736 3820.5102177107137 -61.10425 -0.13936428571428774;-63.525800000000004 5.8785105220535874 4068.3563073000005 -67.843000000000004 0.0034749999999874603;-64.368474999999989 0.042317244342306638 4143.3022875750003 -64.369749999999996 -0.0013750000000030127;-64.527028571428559 0.051769001917127036 4163.7422438142858 -64.525357142857146 0.00038928571428138107;-64.697883333333351 0.078910700419196608 4185.8258676166652 -64.708333333333329 -0.0015416666666657382;-65.055216666666666 0.27298088517354319 4232.2969022166671 -64.929333333333332 0.0016499999999955626;-65.832899999999995 0.082918430013868602 4333.9787847999996 -65.830833333333331 -0.001375000000005381;-66.280600000000007 0.034676550547810457 4393.1190786999996 -66.283500000000004 -0.00090000000000145519;-66.723737500000013 0.20129984805743226 4452.0984525624999 -66.634875000000008 -0.0035125000000029161;-66.920375000000007 0.14216081244337925 4478.3589291750013 -66.976500000000001 -0.0029250000000047294;-66.976950000000016 0.89187890872718723 4488.503336625 -67.239125000000001 0.00045625000001159322;-66.970949999999988 0.10467579321540851 4485.1196418833333 -66.986166666666662 -0.0012583333333301046;-49.984660000000005 0.04526506828730277 2498.4683709400001 -49.985200000000006 0.00086499999999603019;-50.072208333333336 0.046700089873601726 2507.2282937249997 -50.069083333333332 4.166666660291675e-06;-50.116062499999984 0.050512271313059035 2511.6222866624994 -50.115124999999999 -0.00030000000000729443;-50.660466666666657 0.051569864093157107 2566.4854397999993 -50.654999999999994 -0.0011000000000116472;-51.006966666666663 0.039274955440836853 2601.7121831833333 -51.00366666666666 0.00030416666667380332;-51.549816666666651 0.081197592074584615 2657.3899740166657 -51.555999999999997 0.0018583333333334431;-53.147966666666662 0.095945715556351702 2824.7153016999991 -53.146833333333333 -0.0027000000000150237;-54.478099999999998 0.065738374832802857 2967.8676328499996 -54.480500000000006 0.0004624999999993662;-55.482949999999995 0.12848816246929851 3078.3734244500006 -55.492000000000004 0.00047499999999445208;-56.856037499999992 0.071352915408200615 3232.6168488125004 -56.856250000000003 0.0040000000000075531;-57.839849999999998 0.098179435902180895 3345.4577396750001 -57.839500000000001 -0.0017187500000002132;-58.531025 0.064198492072756269 3425.8849530750003 -58.527749999999997 0.0030000000000001137;-60.364820000000002 4.3271207117625714 3675.4186407999996 -59.936900000000009 -0.38936499999999796;-62.847957692307695 2.9107439216693063 3972.4329863038465 -62.841192307692317 -0.29811730769231126;-63.921337500000007 0.14681139255388614 4085.9586267625004 -63.921875 0.00028749999999710951;-64.437884374999996 0.03132397239947312 4152.2431591968761 -64.42740624999999 0.003098437499996276;-64.565709999999996 0.028728866386149111 4168.7318510900004 -64.560200000000009 -0.00035000000000309241;-64.765315000000001 0.057924501851145074 4194.5631955850004 -64.750600000000006 -0.0011325000000013577;-65.693049999999999 0.13523137093223017 4315.5941914500008 -65.68950000000001 0.004199999999997317;-66.306183333333337 0.024637333062841278 4396.5105383833325 -66.30716666666666 0.00082499999999185991;-66.797075000000007 0.18698023341066214 4461.8867920249995 -66.907499999999999 -0.0032999999999994145;-67.031635714285713 0.036055999128406513 4493.241857635714 -67.028428571428577 -0.00068571428571268748;-67.051400000000001 0.041817696717165037 4495.8922182285714 -67.057999999999993 -0.00079285714285605641;-67.118862499999992 0.031206109794017316 4504.9427538375003 -67.126500000000007 -0.00036875000000335945;-67.169420000000002 0.04476776716418629 4511.7330381199999 -67.150700000000001 -0.00082999999999344709;-49.939783333333331 0.045611794659592017 2493.9840707166668 -49.942249999999994 0.00042083333332657941;-49.175519999999999 0.071405970042309946 2418.2368697400007 -49.175600000000003 -0.00063000000000457146;-49.366749999999982 0.20484745408741345 2437.1162033999999 -49.302250000000001 -0.00028750000000066223;-50.152924999999996 0.051040989613632522 2515.3184537750003 -50.15424999999999 -0.00015000000000320313;-50.752074999999984 0.05519915864646921 2575.7760325250001 -50.738250000000001 -0.00092500000000583782;-51.084866666666677 0.044063643999577601 2609.6655869333335 -51.070666666666668 0.00015833333333503671;-52.460216666666668 0.68307359714688265 2752.521456283333 -52.798499999999997 -0.0052750000000045816;-53.842066666666675 0.088014872480363063 2898.9756649333331 -53.859000000000002 0.0017750000000056332;-54.942583333333324 0.10730972483900933 3018.6985965499998 -54.951666666666661 0.0026999999999996285;-56.177487499999991 0.095576726526563377 3155.9191296375006 -56.173499999999997 0.0063000000000021927;-57.044250000000005 0.058136690809747107 3254.0497241833327 -57.045999999999992 0.002466666666662102;-57.754349999999995 0.93230146333049935 3338.37539105 -57.480499999999999 -0.00084375000000136424;-58.605300000000014 8.5981282679963087 3506.0976562999995 -63.391999999999996 -0.006137500000010121;-59.757500000000007 9.7466608290116188 3661.2063337000009 -67.480000000000004 0.0068999999999981299;-61.307631818181818 0.76645847577764736 3766.3915114409092 -61.383454545454548 -0.088055681818183504;-63.099000000000004 5.5036616806210805 4010.2595783000006 -67.891999999999996 -0.0022000000000019782;-64.407174999999995 0.029317675867726545 4148.2850122250002 -64.409000000000006 2.5000000000829914e-05;-64.723337500000014 0.065030772176025889 4189.1178081875005 -64.719250000000017 -0.0015250000000044395;-65.67134999999999 0.13027593185639713 4312.7423340500009 -65.668000000000006 0.004199999999997317;-66.372100000000017 3.9253847803348165 4419.893871799999 -67.973500000000001 0.0013000000000218392;-66.841049999999996 0.10305924458648263 4467.7360552499977 -66.850999999999999 -0.0033249999999966917;-67.141779999999997 0.032892835011168846 4508.0198585200005 -67.137600000000006 0.0014450000000024944;-67.187950000000001 0.047236051692978759 4514.2229140299996 -67.192999999999998 -0.00080499999999119622;-67.20512500000001 0.042250876598454695 4516.530807291666 -67.21374999999999 -0.00054166666666096341;-67.269290000000012 0.044158393926816544 4525.1592766499998 -67.2714 -0.0022649999999913464;-47.800816666666663 0.50282372582561941 2289.0688905166667 -47.644833333333338 0.00013749999999657095;-48.171404545454536 0.024170223146152761 2320.4848780045459 -48.173090909090902 9.7727272723734392e-05;-48.752575000000014 0.0363780753259084 2376.81488025 -48.754125000000002 0.0013875000000034277;-50.185924999999997 0.05325211757103341 2518.6297806749999 -50.182499999999997 7.4999999997160671e-05;-50.582450000000001 0.043504170512739783 2558.5860807499989 -50.593833333333329 -0.0010833333333444273;-50.269750000000023 9.5737166509751006 2614.1210130500003 -41.834000000000003 0.0023500000000034049;-53.207149999999992 0.11060196523742105 2831.0125138999997 -53.195999999999998 -0.0036375000000035129;-54.296816666666651 0.084447422986366608 2948.1512132166667 -54.282499999999999 0.00014166666667255373;-54.923950000000005 9.4924726991831179 3102.2419696500006 -48.154000000000003 0.0051999999999985391;-55.892399999999995 9.7499788145518806 3214.2693603000007 -48.154000000000003 0.0051999999999985391;-57.35136666666665 0.087597037845489778 3289.1867180666663 -57.353333333333332 0.0021250000000065938;-58.573437499999997 0.064138615378678765 3430.8516031875006 -58.572125 0.002868749999997533;-59.539750000000012 7.0396730925519542 3592.0609774499999 -63.429500000000004 0.00014999999999787406;-60.360420000000005 0.018338836123140221 3643.38064906 -60.362000000000009 0.0025800000000018035;-60.538000000000011 5.5957829986893755 3694.5965920000003 -56.555499999999995 0.0021749999999869374;-61.483225000000019 7.8398778632381578 3842.2380767749992 -62.379999999999995 -0.96896250000000173;-64.600399999999993 0.03898439362746263 4173.2132348000005 -64.594999999999999 -0.0012937499999967628;-65.603300000000004 0.12907162434294378 4303.8087974 -65.599999999999994 0.0036999999999949296;-66.4279875 0.069181141565934925 4412.6850242125001 -66.425250000000005 -0.0026625000000031207;-66.89455000000001 0.13196204582464699 4474.900712683333 -66.95516666666667 -0.003883333333339086;-67.253460000000018 0.039027556957211607 4523.0294285800001 -67.247500000000016 -0.0014699999999947977;-67.317687500000005 0.033927797866653328 4531.6721617874991 -67.311250000000001 0.0015999999999998238;-67.33278 0.027796238155040343 4533.7040394200003 -67.340199999999996 0.0013249999999999319;-67.348078571428573 0.0307639843520775 4535.7646335785703 -67.348071428571416 0.0024678571428578622;-67.348835714285713 0.55437667184177619 4537.7312373214272 -67.504999999999995 0.0015928571428511463;-43.719699999999996 5.7704155656243685 1943.0449791000003 -41.834000000000003 0.00057499999999777174;-46.529500000000006 8.330401484606659 2230.9201797000001 -41.834000000000003 0.0012499999999917577;-47.6511152173913 2.2381939937906892 2288.8875505413048 -46.527956521739128 -0.00017065217391654596;-49.072887499999993 0.060080716005127398 2408.1518593874998 -49.070750000000004 0.00044999999999362217;-49.799749999999996 0.13712304000902958 2480.0335008999991 -49.840499999999999 0.00029999999999930083;-50.4831 0.048025277575707584 2548.5457516499991 -50.484749999999998 -0.00018333333333823512;-51.343410000000006 0.0386302056124498 2636.1473179900004 -51.347000000000001 0.0011099999999963474;-52.796424999999999 0.57456843350431153 2787.7779508249996 -53.044250000000005 -0.0032749999999968082;-54.732250000000008 0.090392660489732587 2995.6269990500004 -54.734499999999997 0.0015499999999875058;-55.888100000000009 8.3283915228508985 3189.3737217000003 -60.564999999999998 0.001799999999995805;-57.305150000000005 0.087675082198465773 3283.8876670166669 -57.310000000000002 0.0016916666666707176;-58.192049999999995 1.1900099153833481 3389.8733625166669 -57.842999999999996 -0.0019583333333308417;-59.228049999999996 0.4947104921594363 3508.1944083499998 -58.893999999999998 -0.0048249999999931958;-60.175199999999997 0.027311650742766411 3621.0555412250005 -60.179874999999996 0.00098125000000148788;-60.451149999999977 0.022720209367966069 3654.3420826499987 -60.452749999999995 0.0004416666666659333;-60.591664000000002 0.2029222343462736 3672.351937173999 -60.605649999999997 0.00069100000000389651;-61.445050000000002 5.431024701946944 3803.5153973499996 -57.25 -0.00095000000000311502;-65.336424999999991 0.12494250357323358 4268.8633654750001 -65.336999999999989 0.0014500000000055024;-66.374433333333343 0.029138997733605614 4405.566225300001 -66.388999999999996 -0.00017500000002002025;-66.781400000000005 0.1275949182291147 4459.7708524 -66.807000000000002 -0.0033249999999966917;-67.302099999999996 0.03606262444890361 4529.573918099999 -67.310000000000002 0.00086666666666938375;-67.394760000000019 0.039231005907171941 4542.0552029199998 -67.391000000000005 0.00039999999999906788;-67.423950000000019 0.036326438281896127 4545.9904014500007 -67.425875000000005 -0.00085624999999556195;-67.536924999999982 0.030573391657619953 4561.2372100249995 -67.538999999999987 -0.00039999999999788355;-67.597480000000004 0.034956847912638159 4569.4205345199998 -67.589399999999998 -0.00053999999999803099;-41.886973333333316 0.02273747059523799 1754.5196956166665 -41.886350000000007 0.001265833333330235;-44.955249999999992 6.4281063256771445 2060.2290259500001 -42.319500000000005 -0.00067500000000109139;-47.529100000000007 8.5353070980276904 2328.3033938999997 -42.091499999999996 4.9999999992778044e-05;-49.304224999999995 0.15154654298296505 2430.9289937250005 -49.26925 0.00059999999999860165;-49.731999999999992 0.20129327678323006 2473.3110026333329 -49.817 -0.00033333333333374071;-50.691499999999984 0.05533756607214619 2569.6311351999993 -50.697333333333333 -0.0012333333333470382;-51.918191666666672 0.12273347135566148 2696.8121170958329 -51.957770833333335 2.1875000001021945e-05;-53.773675000000011 0.10099236963597194 2891.6178683749995 -53.783249999999995 -0.0022874999999942247;-54.95245000000002 8.8150831173500279 3093.5921668500005 -60.564999999999998 0.001799999999995805;-56.787925000000001 1.7106639956620779 3238.3705133149997 -57.981125000000006 0.0011824999999973328;-57.272500000000001 8.6612765103923142 3351.4060814999998 -63.359499999999997 -0.0052249999999958163;-59.313949999999991 2.4810808478533568 3527.6875339999997 -58.305499999999995 -0.0026874999999950688;-59.785699999999999 4.8116288203957671 3596.3241077999992 -57.141999999999996 -0.00054999999999694182;-60.281533333333329 0.03919942740599483 3633.8648666166664 -60.27975 -0.00096666666666500589;-60.476183333333324 0.023548416465034975 3657.3693190166659 -60.475777777777779 -0.00037499999999350097;-60.533040909090921 0.4799535774707816 3666.4876910863641 -60.240272727272732 0.0014590909090915457;-60.728758333333339 1.5344014627942526 3701.324407858333 -61.69874999999999 0.0025916666666674359;-66.030490909090901 0.93572373311659252 4369.1378540272726 -66.536318181818189 -0.0013931818181844656;-66.856250000000017 0.0999620322659385 4469.7676568499983 -66.853499999999997 -0.0033249999999966917;-67.288830000000004 0.04221703249304562 4527.7883704100004 -67.302400000000006 -0.00044499999999487734;-67.440970000000007 0.033489335123282185 4548.285650310002 -67.436599999999999 -0.00012499999999917579;-67.565458333333325 0.027725155412473983 4565.091988891666 -67.564916666666662 0.00037083333333380136;-67.623130000000003 0.036460035633068405 4572.88902891 -67.631200000000007 0.00021000000000270802;-67.733962500000018 0.04160793029564757 4587.8914042875003 -67.727374999999995 -0.0011749999999999261;-67.828850000000003 0.039969992831530944 4600.7544255166658 -67.832999999999998 0.00030000000000285354;-41.988946666666664 0.048962698308928125 1763.0755927666664 -41.981066666666663 -0.00058499999999762984;-42.144454999999986 0.070378484266471211 1776.1609904349998 -42.154049999999991 -0.0010799999999996147;-44.655850000000001 6.8697570191842718 2038.97882265 -41.834000000000003 0.00057499999999777174;-48.723130000000012 0.033938639313054478 2373.9445313099995 -48.724100000000007 0.001590000000007308;-49.425899999999992 0.23363198759841508 2442.9716830999996 -49.326500000000003 -0.00042499999999989768;-50.207783333333325 0.050424860182367859 2520.8239781833331 -50.209000000000003 -0.00086666666666938375;-51.114316666666681 0.068968382786785562 2612.6780127833335 -51.090833333333336 -0.0038583333333264136;-52.684649999999998 0.62920076914665057 2776.0484445499997 -53.042999999999999 -0.0034750000000087766;-54.89909999999999 0.10563241565318636 3013.9218619499998 -54.883499999999998 0.0030500000000017735;-56.235166666666665 0.099737873866288906 3162.4036188666664 -56.227666666666671 0.0084833333333331016;-56.810475000000011 7.9129576938180852 3286.9605466249996 -61.962249999999997 -0.00090000000000323155;-59.474675000000005 0.50089397391327262 3537.4760560750001 -59.869250000000001 -0.0035874999999894186;-59.922514285714286 0.031520446676846649 3590.7088287428564 -59.916928571428578 0.00021428571428470738;-60.107610000000008 0.039004495938983794 3612.9263649500003 -60.102800000000002 -0.0016400000000061257;-60.334483333333324 0.026292174470907231 3640.2506861333322 -60.32341666666666 0.00066666666666925778;-60.527725000000011 0.021288785115332599 3663.6059805550003 -60.532499999999999 0.0013400000000043377;-61.247752272727276 1.2301271466494188 3764.4379685886361 -62.012250000000002 -0.22812954545454112;-65.901649999999989 0.075240593520636001 4343.0343303499994 -65.907875000000004 -0.0019812500000018218;-66.871125000000006 0.16076459201084331 4471.776277474999 -66.944000000000003 -0.0028250000000049624;-67.154962499999996 0.035445539149826635 4509.7903266875001 -67.140874999999994 -0.0001499999999960977;-67.45725625 0.035140583926389246 4550.4828710187512 -67.458124999999995 -0.0011656249999933976;-67.650116666666662 0.027878903178270381 4576.5390894333332 -67.65258333333334 0.0016083333333346179;-67.787925000000001 0.031608173488786591 4595.2037657250003 -67.785875000000004 0.0026187499999981156;-67.873349999999988 0.039840543993142019 4606.7931913499997 -67.876833333333337 -5.0000000013502216e-05;-67.935287500000015 0.70438656373036512 4616.9639420874992 -68.088374999999999 -0.0010874999999996859;-42.268612499999996 0.032140492546531209 1786.6377509166671 -42.270937500000002 0.00020833333333462422;-44.076899999999995 5.3986025472484913 1970.4607776 -42.317 0.00077500000000441105;-47.981384999999989 0.64221636269471394 2307.2795125050002 -47.741616666666673 0.0011916666666671458;-48.803383333333343 0.047698765629042947 2381.7724815499996 -48.799166666666665 0.0020249999999997215;-49.48814999999999 0.25130998844530661 2449.1372436000001 -49.341500000000003 -0.0010249999999984993;-50.715399999999988 0.0531338732456417 2572.0545116999992 -50.725000000000001 -0.00092500000000583782;-51.78779999999999 0.42063593459627785 2682.1443166999998 -51.670000000000002 -0.0026000000000152568;-54.448825000000006 0.073008177692940407 2964.6796400249996 -54.459000000000003 0.00032499999999657803;-56.003512499999999 0.098943714262356458 3136.4030693875002 -56.014499999999998 0.0043500000000040728;-56.698230000000002 0.057947585185219724 3214.6947846099997 -56.691500000000005 0.0020849999999903446;-58.109716666666664 0.10987611109733555 3376.7508404499995 -58.101166666666664 -0.0033249999999955073;-59.867650000000005 0.17951990800025872 3584.166132549999 -59.911000000000001 -0.001549999999998164;-59.999299999999998 0.030614185146310022 3599.9171837333333 -60.005666666666663 -0.00046250000000410313;-60.224378571428566 0.030732352730190204 3626.9769200357141 -60.226571428571425 -0.00095357142857161673;-60.380933333333331 0.022702222809600773 3645.8576375000002 -60.377277777777763 -0.0012472222222225718;-60.933925000000002 7.6519936456016353 3771.8178563250003 -65.479250000000008 0.0036249999999942162;-65.353800000000007 7.0225298080722425 4317.9693031000006 -68.204499999999996 -3.8830499999999901;-66.539474999999996 2.59809078644202 4439.6250139999993 -67.220249999999993 -0.97191250000000196;-67.089049999999986 0.045457601404961759 4500.9427632749994 -67.100124999999991 -1.2499999995085886e-05;-67.357699999999994 3.8407036923761244 4551.0732039000004 -68.204499999999996 -3.8830499999999901;-67.897050000000007 0.041692072345095477 4610.0110976750002 -67.890249999999995 6.2499999984311216e-05;-67.970910000000003 0.029271773917485731 4620.0454829299997 -67.968000000000004 0.0010799999999917987;-68.001850000000005 0.052247778827951952 4624.25458557 -67.998500000000007 -2.4999999992303423e-05;-68.142300000000006 0.082715425404521412 4643.3797478249999 -68.146625 0.0022687500000042604;-68.134916666666669 0.039407626776091859 4642.3685173833319 -68.130416666666662 -3.7964624999999899;-42.990349999999999 4.0556186945027877 1863.8562654500004 -42.073999999999998 0.0014000000000020663;-45.713899999999995 7.4487471503311316 2142.5425044000003 -42.083500000000001 -0.00028750000000243858;-48.227959999999996 0.025214668492573658 2325.9368275400006 -48.231500000000011 -0.0013300000000089796;-48.41966764705883 0.01532390617170537 2344.4645863088235 -48.422647058823536 0.0018220588235353526;-49.01780999999999 0.058141286566575801 2402.7491035899993 -49.0246 0.00072499999999422473;-50.027458333333328 0.044774367663968931 2502.7486242583332 -50.02975 0.00039166666665953659;-50.850349999999992 0.051168321260774405 2585.7606047999998 -50.857500000000002 -0.0018624999999978797;-53.253199999999985 0.1109569028419303 2835.9152338999997 -53.233499999999999 -0.0044749999999993406;-55.686750000000004 0.13739603725228619 3101.032059350001 -55.682500000000005 0.0022749999999938098;-56.542800000000014 0.14407220412001739 3197.1079507999993 -56.542500000000004 0.0027499999999953673;-57.220875000000007 0.087197042992108897 3274.2359391750001 -57.219000000000008 -0.00031250000000859757;-58.900099999999988 0.24433839778384955 3469.2784961999992 -58.845500000000001 -0.0031249999999900524;-59.980125000000008 0.039610179518756498 3597.6170696624995 -59.983687500000002 -0.0016468750000031562;-60.125506249999994 0.035206490344807329 3615.0778757312501 -60.136062499999994 -0.00054062499999929514;-60.32513999999999 0.02213835703793423 3639.1232545799994 -60.322800000000001 0.0024449999999973217;-60.503893750000003 0.021364347954506653 3660.7216582687493 -60.498125000000009 5.312500001108944e-05;-65.242999999999995 0.10612431217343354 4256.6598346499995 -65.229500000000002 0.0034499999999866304;-66.593762499999997 0.18381997384467386 4434.761819912499 -66.566500000000005 -0.0039312500000008299;-67.105010000000007 0.037183743038729733 4503.0837808500009 -67.101699999999994 0.00062499999999943157;-67.478528571428569 0.03539972032656525 4553.3531352428581 -67.474857142857147 -0.0007249999999895554;-67.925079999999994 0.037227865140390379 4613.8178801800004 -67.929100000000005 -0.00036000000000058208;-68.098812500000008 0.052187220007505836 4637.4513508 -68.097000000000008 -0.51569062499999951;-68.177628571428571 0.04317396188217057 4648.1911526285712 -68.184785714285709 -3.3279214285714196;-68.475533333333331 0.086583034933065545 4688.9061580333337 -68.467500000000001 0.0019583333333320261;-68.768779999999992 0.17589391486212735 4729.195387400001 -68.780900000000003 -0.0023700000000012266;-48.199244444444432 0.021615491875276088 2323.1676852777778 -48.194277777777778 0.0012944444444396512;-48.268674999999988 0.022269428415049405 2329.8655670999997 -48.269833333333338 -0.0013708333333450893;-48.383133333333319 0.015439707870805766 2340.9279490133335 -48.378566666666657 0.0022700000000021705;-48.601575000000018 0.033272556344737456 2362.1142475416668 -48.599666666666657 0.0018916666666773572;-49.64739999999999 0.24043663818863956 2464.9198042000003 -49.789666666666662 -0.00082499999999896545;-50.392316666666666 0.061475756021667743 2539.3893458499992 -50.400666666666666 -0.00126666666667082;-50.911012499999998 0.041107460409302299 2591.9328925875002 -50.912750000000003 0.0028125000000009948;-54.64415000000001 8.256765852604568 3050.7486024499999 -59.884 -0.0021500000000074238;-56.570262500000005 0.074136256941125397 3200.2014681875007 -56.571874999999999 0.00039374999999619575;-57.074150000000003 0.060049514481891123 3257.4621141499997 -57.072500000000005 0.0026624999999906862;-57.889075000000005 0.10056476424164171 3351.1546698750008 -57.875500000000002 -0.0017500000000012506;-59.514716666666672 1.989824876382591 3550.1721577500002 -58.767166666666661 -0.00089166666666547667;-59.196200000000019 10.283472158862747 3604.6524040999998 -68.199000000000012 -0.38862500000000466;-60.315963333333336 0.017948918646892933 3638.0158506499993 -60.319800000000001 -0.00076833333333752312;-60.428500000000014 0.021182792016978789 3651.6040780299986 -60.424700000000001 -0.0018225000000015256;-61.125550000000011 5.7748127741352597 3768.0139022499993 -56.555499999999995 0.0027999999999899217;-66.502200000000016 0.17095077777258783 4422.5703678 -66.472999999999999 -0.0073250000000015802;-67.071291666666653 0.043948762995379823 4498.560228925001 -67.07716666666667 -0.00058333333332901316;-67.377489999999995 0.036230734778532885 4539.7274637299997 -67.382200000000012 0.00061000000000035483;-67.706230000000005 0.037229979183656718 4584.1349874500011 -67.702600000000004 0.0012250000000037177;-68.264712499999987 0.081742712175021534 4660.0775996375005 -68.255624999999995 0.0019750000000087198;-68.529449999999997 0.22759825757158963 4696.3702225833313 -68.542500000000004 -0.00025833333333954056;-68.82438333333333 0.098661642743701636 4736.8051439166666 -68.836499999999987 0.00079999999999813543;-69.135099999999994 0.1190156557591884 4779.6755084999995 -69.135000000000005 -0.00042499999999989768;-69.169862499999994 0.19361010029551662 4784.5208887125009 -69.169749999999993 -0.00214374999999567;-48.312164999999986 0.02688511701023032 2334.0661254849997 -48.313200000000002 -0.0013925000000106992;-48.35329999999999 0.021755362987957258 2338.0421965272722 -48.355227272727269 -0.00081590909091227627;-48.448078571428574 0.028829824072367088 2347.2172147499996 -48.438571428571422 0.0012250000000005709;-48.562524999999987 0.046410236511172098 2358.3210524083324 -48.575583333333334 -2.083333332336675e-05;-49.234200000000001 0.071016199786143167 2424.0114981800007 -49.236699999999999 -0.00047500000000084692;-50.241912499999991 0.057667840317399223 2524.2530515374997 -50.236750000000001 -0.0017125000000000057;-50.557725000000005 0.04252010245175078 2556.0853344750003 -50.557250000000003 -0.00087500000001039524;-54.221724999999992 0.067175643145212127 2939.9998707249997 -54.210750000000004 0.0030124999999934232;-56.595262500000004 0.076480973754079432 3203.0310732874996 -56.594250000000002 0.00069999999999481588;-56.89204999999999 0.076204527521828963 3236.7135382500001 -56.886125 0.0013562500000023903;-57.462800000000001 0.08999416871874652 3301.9811333500002 -57.469999999999999 -0.00021250000001060698;-58.983124999999987 0.351163991984484 3479.1276689249994 -58.847999999999999 -0.0044374999999909903;-59.956622222222229 0.041655969143293642 3594.7983251777769 -59.956555555555553 -0.00070833333333158381;-60.189924999999995 0.033425113653594324 3622.8282478416668 -60.184666666666665 0.00083333333333316761;-60.345040000000004 0.021516986902534382 3641.5243019400009 -60.354599999999998 -0.0019500000000064687;-60.893050000000002 5.2906673589096096 3734.5551413499988 -57.231000000000002 -0.00095000000000311502;-65.551233333333343 0.24448128761232149 4297.0473464666657 -65.625333333333316 0.0017833333333238481;-66.943083333333334 0.11480286528371106 4481.3909101833333 -66.967166666666657 -0.0023250000000013906;-67.23651000000001 0.040421615979886721 4520.7501486899992 -67.231300000000005 -0.00045499999999663041;-67.852100000000007 0.043396663160663061 4603.9093111500006 -67.856999999999999 -0.0011375000000057867;-68.318124999999995 0.084727941701454187 4667.373203825 -68.314125000000004 0.0021125000000079552;-68.698960000000014 0.18130796853379649 4719.5992824799996 -68.705600000000004 -0.002260000000002549;-68.877150000000015 0.10071288768558882 4744.0716385500009 -68.874166666666653 0.0023833333333342921;-69.323250000000002 0.25253225522448908 4805.7906576750001 -69.34899999999999 -0.0042750000000024713;-69.507200000000012 0.1961897041983395 4831.3015332833329 -69.510000000000005 -0.0080083333333350968;-48.481500000000004 0.0472151093794402 2350.4580833600003 -48.477400000000003 9.5000000008127483e-05;-48.520099999999999 0.053795830777166403 2354.2029894749994 -48.514625000000002 -0.0003249999999894726;-48.700212500000006 0.037668504887591742 2371.7120930374995 -48.691625000000002 0.0032562500000112848;-49.120610000000006 0.06566627566664239 2412.8386439100004 -49.113299999999995 -0.00061000000000603909;-50.311199999999999 0.065820373367727489 2531.2210942500005 -50.311625000000006 -0.0019687499999987423;-50.882324999999987 0.046093903501927366 2589.0130983250001 -50.883000000000003 0.00013749999999657092;-51.712149999999987 0.31383674519020044 2674.2400264499997 -51.648499999999999 -0.0017250000000146315;-56.116012499999997 0.087938837976879611 3149.0144825125008 -56.116250000000001 0.0048312500000031733;-56.722737499999994 0.065245688217785008 3217.4756883124996 -56.724125000000001 0.001674999999989879;-57.142683333333331 0.074330360365065448 3265.2915907166666 -57.134833333333326 0.0026916666666565447;-57.998933333333326 0.10432973338141253 3363.8868033000003 -57.99816666666667 -0.001524999999997334;-59.766200000000012 0.33448776234399835 3572.1049503999993 -59.911000000000001 -0.0024249999999916838;-60.09119166666666 0.03876972177130452 3610.9528833583336 -60.091166666666659 -0.0011916666666695144;-60.263449999999999 0.038588742205501077 3631.6849799999991 -60.266833333333331 -0.00045000000000428031;-61.180089583333341 0.6337166131598877 3749.410261406249 -61.562583333333336 -0.14597395833333723;-64.497152380952372 1.7257120829976844 4171.8772844619052 -65.504571428571424 -0.3329452380952429;-65.829300000000018 4.3999871423257115 4351.8886309999989 -67.954499999999996 0.00062500000001364242;-67.128500000000003 0.029144795555923104 4506.236481725 -67.131875000000008 0.00080000000000701732;-67.763199999999998 0.036017942646980078 4591.8525523749995 -67.780625000000015 0.00050000000000061107;-68.208721428571423 0.05999012350940644 4652.4335419642857 -68.202714285714279 -1.6626142857142796;-68.570475000000002 0.097324911319804169 4701.9192828249988 -68.563749999999999 0.0017499999999941451;-69.003124999999997 0.1917843697130463 4761.4844622250002 -69.007000000000005 -0.0023374999999994373;-69.595108333333343 0.15919505699203676 4843.5113028916658 -69.589083333333335 -0.0052333333333306085;-69.875124999999983 0.19862644977610236 4882.5821811750002 -69.871666666666655 -0.010658333333336618;-69.980649999999997 0.18400983988226868 4897.3342989499997 -69.975125000000006 -0.0080875000000002473;-48.64012000000001 0.032850664835518864 2365.8623788000004 -48.636099999999999 0.0035200000000109814;-48.673141666666645 0.034214046579511513 2369.0759022916668 -48.678749999999994 0.0028625000000115364;-48.776316666666688 0.039682183925920093 2379.1306193166665 -48.772999999999996 0.0029083333333375094;-49.120099999999994 4.3432373191579483 2430.7047488999992 -48.154000000000003 0.00069999999999836859;-49.345275000000015 9.1274011074535153 2514.1860955249995 -42.094499999999996 -0.00086249999999843396;-50.738949999999981 0.056397531674244522 2574.44406875 -50.734499999999997 -0.00030000000000640625;-51.184733333333348 0.088590484782727616 2619.8844856000001 -51.180666666666667 -0.0049999999999990052;-54.095100000000002 0.08517116967327483 2926.2869306000011 -54.102125000000001 -0.0025500000000011624;-56.428849999999997 0.13149315571542119 3184.2315382500001 -56.409499999999994 0.0048000000000030241;-57.003610000000009 0.079173819282378599 3249.4199204900001 -57.002599999999994 0.0018000000000022002;-57.585549999999998 0.092059494065178243 3316.1036671500001 -57.578749999999999 0.00027499999999314184;-59.091474999999988 0.43658303582762892 3491.9844552249997 -58.858750000000001 -0.0048249999999931958;-60.067300000000003 0.034824084295695917 3608.0818790428566 -60.062285714285721 -1.0714285714641392e-05;-60.206585714285708 0.032316192427358663 3624.834090871429 -60.206357142857144 -0.00092499999999670201;-60.299118749999998 0.031874757031938233 3635.9848575187498 -60.304562500000003 -0.0014749999999983388;-62.652799999999999 4.5458319759600041 3945.9442513499998 -63.0565 -0.0008500000000104535;-65.283800000000014 4.7683200793305991 4283.5745749999996 -67.938500000000005 -0.00025000000000119371;-66.821224999999998 0.17827198365289215 4465.1109410249992 -66.918499999999995 -0.0030249999999973909;-67.500228571428565 0.37360095575435587 4557.0594548857143 -67.578499999999991 -0.00071428571427186881;-68.067128571428555 0.049882340375342907 4633.1367374857145 -68.072999999999993 -0.0060821428571458105;-68.415199999999999 0.085566062331611112 4680.6468140249999 -68.424499999999995 0.0031750000000130285;-69.0760875 0.19252693781791327 4771.5579078624996 -69.08175 -0.0025437499999956259;-69.687266666666673 0.20234264225488857 4856.3654537499997 -69.695166666666665 -0.0093833333333369264;-70.19567142857143 0.19726766493452383 4927.480477985715 -70.192071428571424 -0.010682142857148287;-70.305140000000023 0.25106938741962526 4942.884084880001 -70.305900000000008 -0.01851000000001193;-48.834562500000011 0.056656027203997761 2384.8176623374989 -48.825125000000007 0.00085624999999733831;-48.874150000000007 0.061394493594647381 2388.6863175999997 -48.872875000000008 0.0005999999999968253;-49.562066666666652 0.25683081086714676 2456.4616801000002 -49.5655 -0.001633333333330711;-49.898141666666668 0.043292521150702104 2489.8264414583332 -49.891833333333331 0.00024999999999408828;-50.086650000000006 5.9715618980825758 2542.5490821499998 -48.154000000000003 0.0029249999999976239;-50.946658333333332 0.036978958061271411 2595.5633995250009 -50.951666666666675 0.004175000000004184;-53.388724999999987 0.11482486164445829 2850.3685618749996 -53.399500000000003 -0.0031499999999979877;-55.538700000000006 0.12805145938702678 3084.5628854500005 -55.528999999999996 0.0015250000000044395;-56.619949999999996 0.07393972160417675 3205.8258914749995 -56.615375 0.00021249999999728431;-57.608975000000001 0.67918964190406472 3320.2139960250001 -57.473124999999996 -0.00022500000000658105;-58.265475000000009 0.11242479614822762 3394.8776596250004 -58.272750000000002 -0.0017249999999968679;-59.818550000000016 0.2662658890737053 3578.3262767499996 -59.911000000000001 -0.0024249999999916838;-60.146014285714287 0.032700492988089462 3617.5442264857147 -60.144071428571436 0.0013964285714272201;-60.243172222222228 0.031822575848547599 3629.241028161111 -60.234111111111105 -0.00024166666666876791;-60.341650000000016 6.5079881220979816 3681.3509386500009 -63.454000000000001 0.0001750000000058094;-63.973785714285711 3.8062082198798364 4120.4272242428569 -65.340178571428567 0.0017660714285661072;-66.531200000000013 0.17100433974179294 4426.4283538 -66.51400000000001 -0.0073250000000015802;-67.409820000000011 0.041009150319131646 4544.0855356000002 -67.4054 -0.00069500000000104483;-67.81134999999999 0.035204343276048475 4598.3804156750011 -67.795999999999992 0.0016562499999999147;-68.358324999999994 0.084881702632531336 4672.8675038250003 -68.353749999999991 0.0031750000000130285;-68.937116666666668 0.21694506176349238 4752.3955132499996 -68.944000000000003 -0.0021583333333315595;-69.415491666666654 0.1604056186590854 4818.5441130250001 -69.428916666666666 -0.0015750000000037305;-70.086464285714271 0.19758919523508342 4912.1619020642866 -70.075999999999993 -0.0097214285714315452;-70.434744444444433 0.18068049866276845 4961.0916175777766 -70.476222222222219 -0.017475000000002201;-70.697540000000004 0.10756930808928565 4998.1547820599999 -70.704900000000009 -0.020060000000005115;-48.921525000000003 0.065339668882791968 2393.3198185499996 -48.926374999999993 0.0025312499999978755;-48.969110000000001 0.06149147383866127 2397.97754141 -48.9649 0.0024899999999973945;-48.437050000000006 8.8851050209517481 2421.2279649000002 -42.093000000000004 -0.00037500000000001421;-49.856991666666659 0.038618192530479482 2485.7211634083328 -49.858500000000006 0.00025833333333125097;-50.274799999999992 0.062375555784546427 2527.5592849999994 -50.264166666666668 -0.0018749999999982947;-50.615166666666667 0.044870430789969884 2561.8970960666652 -50.602999999999994 -0.00085000000000926923;-51.207850000000022 9.6220928474937022 2710.1993388500005 -51.189999999999998 0.0023500000000034049;-54.798199999999994 0.096319255242269863 3002.8516036500005 -54.8005 0.0028999999999896886;-55.092233333333326 0.11078005342752414 3035.166078133333 -55.087166666666668 0.0029833333333352621;-57.553249999999977 0.093591454628180665 3312.384964750001 -57.555499999999995 0.00064999999999670877;-58.35475000000001 0.10219998109657374 3405.2868295500002 -58.358499999999999 -0.0026000000000010459;-58.749224999999996 5.1973615598086589 3477.445238925 -58.560249999999996 0.0019874999999913712;-60.043540000000007 0.035513317690390657 3605.2280212400001 -60.048999999999999 -0.00073000000000362781;-60.162849999999999 0.025767474953327298 3619.5692859722226 -60.164833333333334 0.00064722222222436513;-60.402178571428578 0.021378475852514327 3648.4236608357132 -60.409285714285716 0.0017392857142906693;-62.392828571428574 6.093031465977254 3932.3601165285709 -64.269857142857148 0.0023142857142782747;-65.921556666666675 2.8187298683151045 4365.794197983334 -67.205833333333345 -0.25844666666666638;-67.22505000000001 0.024047495195533661 4519.2079022499984 -67.224999999999994 0.002537500000013182;-67.677207142857142 0.027100783252110024 4580.2051272071431 -67.67321428571428 0.0011250000000089244;-68.033178571428579 0.054015066036982348 4628.5163988357135 -68.031428571428563 -0.0039107142857080892;-68.627790000000005 0.17870462313794461 4709.82690525 -68.633200000000002 -0.00067000000000589928;-69.233687500000002 0.19271953382413903 4793.3526070625003 -69.226500000000001 -0.00066875000000177209;-69.77976666666666 0.16499833444849235 4869.2486347333333 -69.781083333333328 -0.0063916666666680548;-70.565134999999998 0.13808732037126059 4979.4604380050005 -70.590649999999997 -0.018907500000004518;-70.8123875 0.06347931254466356 5014.3992037425005 -70.828375000000008 -0.020244999999998112];

% ===== SIMULATION ========

% Input 1
% no processing

% Layer 1
z1 = negdist_apply(IW1_1,x1);
a1 = compet_apply(z1);

% Output 1
y1 = a1;
end

% ===== MODULE FUNCTIONS ========

% Negative Distance Weight Function
function z = negdist_apply(w,p)
S = size(w,1);
Q = size(p,2);
z = zeros(S,Q);
if (Q<S)
    p = p';
    for q=1:Q
        z(:,q) = sum(bsxfun(@minus,w,p(q,:)).^2,2);
    end
else
    w = w';
    for i=1:S
        z(i,:) = sum(bsxfun(@minus,w(:,i),p).^2,1);
    end
end
z = -sqrt(z);
end

% Competitive Transfer Function
function a = compet_apply(n)
if isempty(n)
    a = n;
else
    [S,Q] = size(n);
    nanInd = any(isnan(n),1);
    
    a = zeros(S,Q);
    [~,rows] = max(n,[],1);
    onesInd = rows + S*(0:(Q-1));
    a(onesInd) = 1;
    
    a(:,nanInd) = NaN;
end
end
